8 100
4 0.01570372 -0.16588572 0.009859629 -0.0014920745 0.07861755 -0.08707594 0.030833572 -0.07659256 -0.015534873 -0.07747267 0.022597466 0.1553818 -0.058448993 -0.13916127 -0.07989841 0.071036525 -0.084010325 -0.04015339 -0.029645737 0.007334916 0.07542136 -0.0768834 0.059526183 0.09546814 -0.020172505 0.14464325 -0.13603917 0.022348536 -0.06421766 -0.005869492 0.15101248 0.13097198 -0.13895921 -0.06257689 -0.06120491 0.04729009 0.021665705 0.05664462 -0.050360303 -0.033214293 0.019624332 -0.002810996 0.08510639 0.014010152 0.029808551 0.0764041 0.09074503 -0.038593236 0.08729554 -0.014808087 0.04324887 0.052322175 -0.08704641 -0.07667773 0.004104001 -0.039040186 -0.061437722 0.099996135 0.037786145 -0.0413046 -0.023099488 0.05533916 -0.050122343 -0.07327016 -0.059577722 -0.20701063 0.02220357 -0.14797838 0.10764134 -0.018580975 -0.11669815 -0.054190274 0.15924649 -0.1562711 -0.105667256 0.1060157 -0.013868272 0.0028625731 0.046627942 0.18758348 -0.0697931 -0.06459276 0.015087686 0.05508185 0.02651671 0.01568573 0.003769782 0.08348485 -0.026758874 0.006143092 -0.022616938 -0.067712724 0.0072441413 -0.14646377 -0.029661942 -0.065593764 -0.03846133 0.08866198 -0.009009955 -0.070682235
6 0.0630868 -0.02666412 -0.025809322 -0.024330191 -0.02604095 -0.004723318 -0.0573941 0.020922223 -0.030754268 0.030001668 0.06319181 0.021278022 -0.02483162 0.026474545 -0.015760554 -0.03635172 -0.06541446 0.027005555 -0.022607032 -0.00083417725 0.020058945 0.0016342766 0.033121824 -0.011284628 0.06641742 0.051507432 0.01284482 -0.022272531 -0.009248386 -0.03320672 -0.002534441 0.035012785 -0.04623894 0.040587835 0.016110256 0.04122206 -0.018628262 -0.015841072 -0.024279322 -0.007986311 0.02327661 0.031070998 0.027768068 -0.047422677 0.044473838 0.0773976 0.013544862 0.00079528376 -0.031477615 0.06734873 0.033166125 0.07546077 -0.05844007 -0.037733123 0.04092865 0.046436135 -0.016205525 0.01091524 0.005313591 0.009313947 -0.04708698 -0.022623945 0.051166173 -0.016146606 -0.03167917 0.012657831 -0.010269171 -0.028218033 0.013470945 -0.04699744 0.0027240203 -0.052760854 -0.010247678 0.021313822 -0.025670342 0.029043263 0.07946526 -0.019576183 0.020669354 0.021906808 0.054282635 0.005968208 -0.00576004 0.05639823 -0.02626907 -0.027533133 -0.0026349183 -0.018920198 0.019303596 0.031810656 0.0062193004 -0.013900164 -0.061073627 -0.018532619 0.012485558 0.008650042 -0.025131399 0.03177543 -0.018908959 0.05753487
7 0.07593601 -0.18627125 0.030668333 -0.06526685 0.049509667 -0.10192192 -0.00169653 -0.08792103 -0.017112184 -0.05072031 0.03784258 0.19100755 -0.05174256 -0.15023826 -0.045265865 -0.02673686 -0.10553334 -0.064557016 -0.081978746 -0.033067804 0.06857107 -0.058045536 0.10136379 0.03701669 0.07453472 0.175505 -0.040214643 -0.04036858 -0.040093966 -0.027515344 0.10822529 0.1250129 -0.16749315 -0.03411314 -0.04362331 0.053561863 -0.031068483 0.038949035 -0.053967807 -0.030138725 0.04552778 0.024017248 0.05729614 -0.044534 0.060559638 0.14522964 0.09042391 -0.08109158 0.09229125 0.07662001 -0.008469135 0.104355864 -0.11356538 -0.12981091 0.03141587 0.037576534 -0.075536385 0.10971731 0.025840238 -0.055991486 -0.065341555 0.015042533 0.02987708 -0.104413 -0.10644304 -0.18556826 0.06868633 -0.13191466 0.11333443 -0.0339035 -0.15749088 -0.124593325 0.1541427 -0.10631029 -0.080927685 0.07428063 0.08880162 -0.0077056354 0.069045104 0.20759203 0.028691523 -0.021787535 0.023811826 0.11002587 -0.027353099 -0.034442116 -0.05701513 0.003921839 -0.015442092 0.04570053 0.00029831566 -0.07678079 -0.07174667 -0.16246699 -0.031561904 -0.011257678 -0.01351298 0.14380771 0.025227783 -0.093529
8 0.15986589 -0.12981573 0.10811348 -0.17735423 -0.021069266 -0.04878112 -0.047488928 -0.10447432 0.020758776 0.041289624 -0.0047290726 0.15498675 0.024462296 -0.12641202 0.09142265 -0.2388912 -0.040822245 -0.0992937 -0.16820845 -0.114678286 -0.035943482 0.010910573 0.11421866 -0.111736536 0.2577225 0.13268836 0.23806515 -0.17073677 0.06964036 -0.021581067 -0.05666133 0.0034271972 -0.094488546 -0.005967444 0.0030729661 0.004466469 -0.12994033 -0.036478966 0.035086572 0.025828585 0.06255683 0.053516444 -0.09347259 -0.16360976 0.052707575 0.20005831 0.027182007 -0.14659408 0.07860117 0.21748668 -0.16730602 0.13579847 -0.07736645 -0.16580492 0.044512905 0.19574101 -0.050032232 0.08466994 -0.007827333 -0.08949544 -0.11415075 -0.1012489 0.1868817 -0.121281154 -0.157471 -0.033265274 0.15886828 0.014970041 0.040657833 -0.01713688 -0.16602448 -0.21112108 0.09405161 0.086106926 0.068156905 -0.062227126 0.2497478 0.0047712782 0.11979214 0.15439521 0.22303367 0.07591393 0.04380375 0.18077895 -0.12792526 -0.16903466 -0.16579379 -0.20086633 0.012473341 0.13599569 0.061139442 -0.049783166 -0.1895655 -0.12561911 -0.04778099 0.16448359 0.06903495 0.20166445 0.15680385 -0.14413175
1 0.16768996 0.12060082 -0.062316798 -0.07970298 -0.1796259 0.072345085 -0.19157666 0.1287255 -0.045675136 0.16734284 0.14740326 -0.109955825 0.011333386 0.22505793 0.07587816 -0.19804537 -0.080989935 0.10004958 -0.023996523 -0.02621139 -0.034901563 0.08295993 0.033439893 -0.17213336 0.21719389 -0.02476457 0.22269389 -0.092699625 0.065039515 -0.08928174 -0.21244597 -0.054086123 0.01719972 0.19998634 0.11102917 0.0375191 -0.095629744 -0.12607156 -0.01004684 0.008614392 0.06933876 0.09194627 -0.0436944 -0.1394648 0.09432296 0.12034551 -0.057680707 0.026852686 -0.18030867 0.23766786 0.0046087457 0.13480707 -0.03769349 -0.018062476 0.11533759 0.20773417 0.01080268 -0.07742894 -0.031154538 0.052876156 -0.117062874 -0.15466651 0.22403188 0.03758243 -0.037100654 0.26780334 -0.032552235 0.11810373 -0.09814418 -0.101208895 0.10953208 -0.09477122 -0.2158738 0.23594107 0.08150441 -0.070466734 0.24451819 -0.043587487 -0.005421201 -0.1570381 0.24205735 0.10322508 -0.03732093 0.08648174 -0.10524998 -0.097642995 -0.040076844 -0.18826814 0.09651665 0.0879717 0.038187616 0.04580532 -0.18662071 0.11414868 0.05901032 0.12983878 -0.0008790004 0.0038806489 -0.032678626 0.20197895
3 0.22610924 0.16535261 -0.08897138 -0.07185221 -0.25286028 0.05215392 -0.26739702 0.17509839 -0.06385417 0.19415887 0.22810222 -0.14115852 -0.00863346 0.3178113 0.05987379 -0.20885484 -0.15903537 0.1651369 0.032838963 -0.040167544 0.013978059 0.09725375 0.042172905 -0.22676876 0.22833392 -0.03792108 0.23638053 -0.09991738 0.09729415 -0.14416672 -0.2763425 -0.05685355 -0.042435106 0.29528606 0.1297018 0.038229268 -0.090597816 -0.1899581 -0.09140456 -0.046233777 0.1329355 0.12659079 -0.0059695924 -0.1441628 0.13568737 0.1187261 -0.08361836 0.059702232 -0.2576462 0.3079721 0.04272897 0.15604563 -0.031989362 -0.027720146 0.16759396 0.2694746 -0.026964288 -0.08277381 0.008142522 0.06400295 -0.16810678 -0.19544457 0.26293683 0.057068817 -0.025763031 0.33136442 -0.058919895 0.14545439 -0.12512313 -0.15211336 0.13383408 -0.13773693 -0.3119926 0.28502083 0.08456264 -0.07388122 0.3101978 -0.067938425 -0.053078372 -0.20730561 0.2904218 0.12812634 -0.10164884 0.062946476 -0.074506775 -0.07206244 -0.04868317 -0.21261959 0.123447694 0.10331104 -0.01224046 0.025228929 -0.23991226 0.16414651 0.08629576 0.14042762 -0.027056456 -0.03264668 -0.119283065 0.30428532
5 0.20121701 0.17632182 -0.10634129 -0.060258865 -0.23553757 0.07171382 -0.2568167 0.18385424 -0.07294516 0.19022176 0.21692276 -0.15897967 -0.013018029 0.31973088 0.051077638 -0.18533918 -0.13921298 0.16752988 0.03530567 -0.016548796 -0.004187446 0.09905831 0.024434227 -0.20408891 0.21525182 -0.05247015 0.20780891 -0.08292944 0.08047645 -0.13037628 -0.2624118 -0.048119664 -0.017108414 0.2805888 0.1241857 0.04395687 -0.081703685 -0.17341346 -0.075254664 -0.036774848 0.11121341 0.11018712 -0.00034212758 -0.13724455 0.12844826 0.1145282 -0.08207305 0.07591983 -0.25440547 0.2777897 0.05769621 0.14947708 -0.036987606 -0.008773663 0.14809562 0.23991482 -0.0032975394 -0.089953125 -0.0060261814 0.070261024 -0.14769393 -0.18332373 0.24747871 0.06615798 -0.008685889 0.3316068 -0.07209198 0.13853684 -0.12707736 -0.13579011 0.1562871 -0.11044006 -0.30604717 0.27095115 0.07115417 -0.06690206 0.2760113 -0.06303066 -0.04854209 -0.21992503 0.26256108 0.11272985 -0.09269683 0.05462379 -0.07898436 -0.07042353 -0.019077497 -0.19391818 0.1241302 0.094772734 -0.0008648041 0.042291746 -0.20985104 0.16799848 0.080539286 0.12311471 -0.027672492 -0.047547605 -0.11921387 0.31079504
2 0.061582644 -0.16735102 0.047995333 -0.05300782 0.05119772 -0.09489077 0.01988707 -0.09210169 -0.002851333 -0.053477865 0.020040179 0.18055733 -0.034402322 -0.15631747 -0.042699717 -0.011227839 -0.086936824 -0.06380669 -0.07259184 -0.029116761 0.06054151 -0.060323335 0.09099484 0.043429073 0.05846997 0.15676944 -0.038080033 -0.03895392 -0.034335554 -0.013897562 0.10676753 0.10869165 -0.14834289 -0.051208116 -0.045811057 0.040877532 -0.017888429 0.040122934 -0.04539903 -0.020523831 0.031552628 0.013557446 0.045186244 -0.030818803 0.04236707 0.11996928 0.07811485 -0.08127444 0.09140476 0.05219248 -0.02113432 0.08322099 -0.08971848 -0.12037031 0.012607645 0.025861025 -0.062469598 0.10578933 0.025873791 -0.062991366 -0.050624788 0.015423352 0.013197757 -0.09844057 -0.09118647 -0.18348868 0.071353815 -0.11846402 0.10399083 -0.01957116 -0.15037353 -0.11313775 0.14986941 -0.100596145 -0.07101931 0.0630135 0.068839066 0.005609733 0.06326079 0.19440491 0.018998234 -0.024580928 0.025643568 0.086033784 -0.015562691 -0.032763198 -0.0486513 0.0034351656 -0.020639803 0.04035497 -0.0067029577 -0.069202356 -0.056423593 -0.1572711 -0.031400084 -0.0065968824 -0.0060788253 0.13242024 0.030970821 -0.10249489
